<?xml version="1.0"?>
<opencv_storage>
<cascade>
  <stageType>BOOST</stageType>
  <featureType>HAAR</featureType>
  <height>20</height>
  <width>20</width>
  <stageParams>
    <boostType>GAB</boostType>
    <minHitRate>9.9900001287460327e-01</minHitRate>
    <maxFalseAlarm>5.0000000745058060e-02</maxFalseAlarm>
    <weightTrimRate>9.4999999999999996e-01</weightTrimRate>
    <maxDepth>1</maxDepth>
    <maxWeakCount>100</maxWeakCount></stageParams>
  <featureParams>
    <maxCatCount>0</maxCatCount>
    <featSize>1</featSize>
    <mode>ALL</mode></featureParams>
  <stageNum>3</stageNum>
  <stages>
    <!-- stage 0 -->
    <_>
      <maxWeakCount>8</maxWeakCount>
      <stageThreshold>-4.2407199740409851e-01</stageThreshold>
      <weakClassifiers>
        <_>
          <internalNodes>
            0 -1 9 1.5294786542654037e-02</internalNodes>
          <leafValues>
            -7.0329672098159790e-01 8.4581500291824341e-01</leafValues></_>
        <_>
          <internalNodes>
            0 -1 12 1.0911580175161362e-02</internalNodes>
          <leafValues>
            -9.2252349853515625e-01 5.9981757402420044e-01</leafValues></_>
        <_>
          <internalNodes>
            0 -1 14 -1.2629895471036434e-02</internalNodes>
          <leafValues>
            5.0845527648925781e-01 -8.9848101139068604e-01</leafValues></_>
        <_>
          <internalNodes>
            0 -1 7 -1.1731225997209549e-02</internalNodes>
          <leafValues>
            5.6070876121520996e-01 -8.0927866697311401e-01</leafValues></_>
        <_>
          <internalNodes>
            0 -1 4 1.7320074141025543e-02</internalNodes>
          <leafValues>
            -5.6347680091857910e-01 8.7148952484130859e-01</leafValues></_>
        <_>
          <internalNodes>
            0 -1 0 1.5608785673975945e-02</internalNodes>
          <leafValues>
            -9.8271471261978149e-01 4.9842658638954163e-01</leafValues></_>
        <_>
          <internalNodes>
            0 -1 5 3.6460839211940765e-02</internalNodes>
          <leafValues>
            -5.1725071668624878e-01 9.7604870796203613e-01</leafValues></_>
        <_>
          <internalNodes>
            0 -1 1 3.2545121939620003e-05</internalNodes>
          <leafValues>
            5.6253141164779663e-01 -9.9411928653717041e-01</leafValues></_></weakClassifiers></_>
    <!-- stage 1 -->
    <_>
      <maxWeakCount>6</maxWeakCount>
      <stageThreshold>1.8665181100368500e-01</stageThreshold>
      <weakClassifiers>
        <_>
          <internalNodes>
            0 -1 10 2.7179648168385029e-03</internalNodes>
          <leafValues>
            -6.5454542636871338e-01 8.0000001192092896e-01</leafValues></_>
        <_>
          <internalNodes>
            0 -1 6 4.8793260939419270e-03</internalNodes>
          <leafValues>
            -5.4618257284164429e-01 8.8913005590438843e-01</leafValues></_>
        <_>
          <internalNodes>
            0 -1 17 7.6078868005424738e-05</internalNodes>
          <leafValues>
            4.6219584345817566e-01 -1.</leafValues></_>
        <_>
          <internalNodes>
            0 -1 15 8.4944553673267365e-03</internalNodes>
          <leafValues>
            -4.8235869407653809e-01 9.0372407436370850e-01</leafValues></_>
        <_>
          <internalNodes>
            0 -1 13 1.9540749490261078e-02</internalNodes>
          <leafValues>
            -5.7387864589691162e-01 9.6747356653213501e-01</leafValues></_>
        <_>
          <internalNodes>
            0 -1 19 -3.8717374991392717e-05</internalNodes>
          <leafValues>
            -1. 5.9533858299255371e-01</leafValues></_></weakClassifiers></_>
    <!-- stage 2 -->
    <_>
      <maxWeakCount>7</maxWeakCount>
      <stageThreshold>3.2691362500190735e-01</stageThreshold>
      <weakClassifiers>
        <_>
          <internalNodes>
            0 -1 19 2.4282173399114981e-05</internalNodes>
          <leafValues>
            6.7785233259201050e-01 -1.</leafValues></_>
        <_>
          <internalNodes>
            0 -1 8 5.9575876221060753e-03</internalNodes>
          <leafValues>
            -6.2886846065521240e-01 8.5005617141723633e-01</leafValues></_>
        <_>
          <internalNodes>
            0 -1 18 -5.9811540268128738e-05</internalNodes>
          <leafValues>
            -9.1921871900558472e-01 4.6997386217117310e-01</leafValues></_>
        <_>
          <internalNodes>
            0 -1 3 2.6974029839038849e-02</internalNodes>
          <leafValues>
            4.1842901706695557e-01 -9.4462132453918457e-01</leafValues></_>
        <_>
          <internalNodes>
            0 -1 11 3.7928391247987747e-03</internalNodes>
          <leafValues>
            -5.8012562990188599e-01 7.5476145744323730e-01</leafValues></_>
        <_>
          <internalNodes>
            0 -1 2 1.0911921970546246e-02</internalNodes>
          <leafValues>
            -8.8296556472778320e-01 4.7865653038024902e-01</leafValues></_>
        <_>
          <internalNodes>
            0 -1 16 -7.0514209568500519e-02</internalNodes>
          <leafValues>
            9.5268070697784424e-01 -4.8084080219268799e-01</leafValues></_></weakClassifiers></_></stages>
  <features>
    <_>
      <rects>
        <_>
          0 15 20 5 -1.</_>
        <_>
          5 15 10 5 2.</_></rects>
      <tilted>0</tilted></_>
    <_>
      <rects>
        <_>
          2 0 2 1 -1.</_>
        <_>
          2 0 1 1 2.</_></rects>
      <tilted>1</tilted></_>
    <_>
      <rects>
        <_>
          2 0 18 8 -1.</_>
        <_>
          8 0 6 8 3.</_></rects>
      <tilted>0</tilted></_>
    <_>
      <rects>
        <_>
          3 4 14 12 -1.</_>
        <_>
          10 4 7 12 2.</_></rects>
      <tilted>0</tilted></_>
    <_>
      <rects>
        <_>
          4 6 3 3 -1.</_>
        <_>
          5 7 1 1 9.</_></rects>
      <tilted>0</tilted></_>
    <_>
      <rects>
        <_>
          5 1 14 3 -1.</_>
        <_>
          4 2 14 1 3.</_></rects>
      <tilted>1</tilted></_>
    <_>
      <rects>
        <_>
          7 6 3 1 -1.</_>
        <_>
          8 6 1 1 3.</_></rects>
      <tilted>0</tilted></_>
    <_>
      <rects>
        <_>
          7 9 6 3 -1.</_>
        <_>
          9 10 2 1 9.</_></rects>
      <tilted>0</tilted></_>
    <_>
      <rects>
        <_>
          7 14 3 1 -1.</_>
        <_>
          8 14 1 1 3.</_></rects>
      <tilted>0</tilted></_>
    <_>
      <rects>
        <_>
          9 7 3 3 -1.</_>
        <_>
          10 8 1 1 9.</_></rects>
      <tilted>0</tilted></_>
    <_>
      <rects>
        <_>
          9 10 1 2 -1.</_>
        <_>
          9 11 1 1 2.</_></rects>
      <tilted>0</tilted></_>
    <_>
      <rects>
        <_>
          10 13 3 1 -1.</_>
        <_>
          11 13 1 1 3.</_></rects>
      <tilted>0</tilted></_>
    <_>
      <rects>
        <_>
          12 0 8 6 -1.</_>
        <_>
          12 3 8 3 2.</_></rects>
      <tilted>0</tilted></_>
    <_>
      <rects>
        <_>
          12 9 4 3 -1.</_>
        <_>
          12 10 4 1 3.</_></rects>
      <tilted>0</tilted></_>
    <_>
      <rects>
        <_>
          12 14 8 6 -1.</_>
        <_>
          12 17 8 3 2.</_></rects>
      <tilted>0</tilted></_>
    <_>
      <rects>
        <_>
          14 8 2 3 -1.</_>
        <_>
          14 9 2 1 3.</_></rects>
      <tilted>0</tilted></_>
    <_>
      <rects>
        <_>
          16 2 3 13 -1.</_>
        <_>
          17 3 1 13 3.</_></rects>
      <tilted>1</tilted></_>
    <_>
      <rects>
        <_>
          16 18 4 2 -1.</_>
        <_>
          18 18 2 2 2.</_></rects>
      <tilted>0</tilted></_>
    <_>
      <rects>
        <_>
          17 19 3 1 -1.</_>
        <_>
          18 19 1 1 3.</_></rects>
      <tilted>0</tilted></_>
    <_>
      <rects>
        <_>
          18 19 2 1 -1.</_>
        <_>
          19 19 1 1 2.</_></rects>
      <tilted>0</tilted></_></features></cascade>
</opencv_storage>
