<?xml version="1.0"?>
<opencv_storage>
<stage0>
  <maxWeakCount>8</maxWeakCount>
  <stageThreshold>-4.2407199740409851e-01</stageThreshold>
  <weakClassifiers>
    <_>
      <internalNodes>
        0 -1 84176 1.5294786542654037e-02</internalNodes>
      <leafValues>
        -7.0329672098159790e-01 8.4581500291824341e-01</leafValues></_>
    <_>
      <internalNodes>
        0 -1 100442 1.0911580175161362e-02</internalNodes>
      <leafValues>
        -9.2252349853515625e-01 5.9981757402420044e-01</leafValues></_>
    <_>
      <internalNodes>
        0 -1 105341 -1.2629895471036434e-02</internalNodes>
      <leafValues>
        5.0845527648925781e-01 -8.9848101139068604e-01</leafValues></_>
    <_>
      <internalNodes>
        0 -1 69940 -1.1731225997209549e-02</internalNodes>
      <leafValues>
        5.6070876121520996e-01 -8.0927866697311401e-01</leafValues></_>
    <_>
      <internalNodes>
        0 -1 42727 1.7320074141025543e-02</internalNodes>
      <leafValues>
        -5.6347680091857910e-01 8.7148952484130859e-01</leafValues></_>
    <_>
      <internalNodes>
        0 -1 9444 1.5608785673975945e-02</internalNodes>
      <leafValues>
        -9.8271471261978149e-01 4.9842658638954163e-01</leafValues></_>
    <_>
      <internalNodes>
        0 -1 48775 3.6460839211940765e-02</internalNodes>
      <leafValues>
        -5.1725071668624878e-01 9.7604870796203613e-01</leafValues></_>
    <_>
      <internalNodes>
        0 -1 19363 3.2545121939620003e-05</internalNodes>
      <leafValues>
        5.6253141164779663e-01 -9.9411928653717041e-01</leafValues></_></weakClassifiers></stage0>
</opencv_storage>
